digraph Tree {
node [shape=box, fontname="helvetica"] ;
edge [fontname="helvetica"] ;
0 [label="X3 distance to the nearest MRT station <= 981.578\nsquared_error = 223.334\nsamples = 270\nvalue = 38.359"] ;
1 [label="X3 distance to the nearest MRT station <= 330.03\nsquared_error = 140.659\nsamples = 182\nvalue = 45.823"] ;
0 -> 1 [labeldistance=2.5, labelangle=45, headlabel="True"] ;
2 [label="X3 distance to the nearest MRT station <= 291.161\nsquared_error = 149.277\nsamples = 90\nvalue = 51.084"] ;
1 -> 2 ;
3 [label="X3 distance to the nearest MRT station <= 97.633\nsquared_error = 138.412\nsamples = 79\nvalue = 49.834"] ;
2 -> 3 ;
4 [label="X3 distance to the nearest MRT station <= 88.879\nsquared_error = 33.018\nsamples = 18\nvalue = 55.022"] ;
3 -> 4 ;
5 [label="X3 distance to the nearest MRT station <= 57.032\nsquared_error = 38.652\nsamples = 8\nvalue = 52.15"] ;
4 -> 5 ;
6 [label="X3 distance to the nearest MRT station <= 36.522\nsquared_error = 16.642\nsamples = 5\nvalue = 56.16"] ;
5 -> 6 ;
7 [label="squared_error = 0.0\nsamples = 1\nvalue = 49.7"] ;
6 -> 7 ;
8 [label="X3 distance to the nearest MRT station <= 53.068\nsquared_error = 7.762\nsamples = 4\nvalue = 57.775"] ;
6 -> 8 ;
9 [label="squared_error = 0.25\nsamples = 2\nvalue = 57.3"] ;
8 -> 9 ;
10 [label="squared_error = 14.823\nsamples = 2\nvalue = 58.25"] ;
8 -> 10 ;
11 [label="X3 distance to the nearest MRT station <= 70.238\nsquared_error = 3.869\nsamples = 3\nvalue = 45.467"] ;
5 -> 11 ;
12 [label="squared_error = 0.0\nsamples = 1\nvalue = 42.7"] ;
11 -> 12 ;
13 [label="X3 distance to the nearest MRT station <= 85.094\nsquared_error = 0.062\nsamples = 2\nvalue = 46.85"] ;
11 -> 13 ;
14 [label="squared_error = 0.0\nsamples = 1\nvalue = 46.6"] ;
13 -> 14 ;
15 [label="squared_error = 0.0\nsamples = 1\nvalue = 47.1"] ;
13 -> 15 ;
16 [label="squared_error = 16.632\nsamples = 10\nvalue = 57.32"] ;
4 -> 16 ;
17 [label="X3 distance to the nearest MRT station <= 251.607\nsquared_error = 159.225\nsamples = 61\nvalue = 48.303"] ;
3 -> 17 ;
18 [label="X3 distance to the nearest MRT station <= 126.678\nsquared_error = 78.369\nsamples = 38\nvalue = 46.708"] ;
17 -> 18 ;
19 [label="X3 distance to the nearest MRT station <= 122.044\nsquared_error = 62.994\nsamples = 9\nvalue = 49.956"] ;
18 -> 19 ;
20 [label="X3 distance to the nearest MRT station <= 115.836\nsquared_error = 26.59\nsamples = 8\nvalue = 47.738"] ;
19 -> 20 ;
21 [label="X3 distance to the nearest MRT station <= 107.378\nsquared_error = 29.951\nsamples = 7\nvalue = 47.971"] ;
20 -> 21 ;
22 [label="squared_error = 34.942\nsamples = 6\nvalue = 47.967"] ;
21 -> 22 ;
23 [label="squared_error = 0.0\nsamples = 1\nvalue = 48.0"] ;
21 -> 23 ;
24 [label="squared_error = -0.0\nsamples = 1\nvalue = 46.1"] ;
20 -> 24 ;
25 [label="squared_error = 0.0\nsamples = 1\nvalue = 67.7"] ;
19 -> 25 ;
26 [label="X3 distance to the nearest MRT station <= 179.98\nsquared_error = 78.852\nsamples = 29\nvalue = 45.7"] ;
18 -> 26 ;
27 [label="X3 distance to the nearest MRT station <= 131.771\nsquared_error = 19.411\nsamples = 9\nvalue = 41.122"] ;
26 -> 27 ;
28 [label="squared_error = 0.0\nsamples = 1\nvalue = 37.2"] ;
27 -> 28 ;
29 [label="X3 distance to the nearest MRT station <= 144.396\nsquared_error = 19.674\nsamples = 8\nvalue = 41.612"] ;
27 -> 29 ;
30 [label="squared_error = 0.0\nsamples = 1\nvalue = 47.3"] ;
29 -> 30 ;
31 [label="X3 distance to the nearest MRT station <= 165.961\nsquared_error = 17.203\nsamples = 7\nvalue = 40.8"] ;
29 -> 31 ;
32 [label="X3 distance to the nearest MRT station <= 156.925\nsquared_error = 2.7\nsamples = 4\nvalue = 39.3"] ;
31 -> 32 ;
33 [label="squared_error = 0.0\nsamples = 1\nvalue = 36.9"] ;
32 -> 33 ;
34 [label="X3 distance to the nearest MRT station <= 159.774\nsquared_error = 1.04\nsamples = 3\nvalue = 40.1"] ;
32 -> 34 ;
35 [label="squared_error = 1.44\nsamples = 2\nvalue = 40.3"] ;
34 -> 35 ;
36 [label="squared_error = 0.0\nsamples = 1\nvalue = 39.7"] ;
34 -> 36 ;
37 [label="X3 distance to the nearest MRT station <= 170.055\nsquared_error = 29.54\nsamples = 3\nvalue = 42.8"] ;
31 -> 37 ;
38 [label="squared_error = 0.0\nsamples = 1\nvalue = 50.2"] ;
37 -> 38 ;
39 [label="X3 distance to the nearest MRT station <= 172.879\nsquared_error = 3.24\nsamples = 2\nvalue = 39.1"] ;
37 -> 39 ;
40 [label="squared_error = 0.0\nsamples = 1\nvalue = 37.3"] ;
39 -> 40 ;
41 [label="squared_error = 0.0\nsamples = 1\nvalue = 40.9"] ;
39 -> 41 ;
42 [label="X3 distance to the nearest MRT station <= 186.996\nsquared_error = 91.926\nsamples = 20\nvalue = 47.76"] ;
26 -> 42 ;
43 [label="X3 distance to the nearest MRT station <= 185.97\nsquared_error = 185.182\nsamples = 5\nvalue = 54.42"] ;
42 -> 43 ;
44 [label="X3 distance to the nearest MRT station <= 184.88\nsquared_error = 53.273\nsamples = 4\nvalue = 48.45"] ;
43 -> 44 ;
45 [label="squared_error = 0.0\nsamples = 1\nvalue = 45.4"] ;
44 -> 45 ;
46 [label="squared_error = 66.896\nsamples = 3\nvalue = 49.467"] ;
44 -> 46 ;
47 [label="squared_error = -0.0\nsamples = 1\nvalue = 78.3"] ;
43 -> 47 ;
48 [label="X3 distance to the nearest MRT station <= 188.761\nsquared_error = 41.128\nsamples = 15\nvalue = 45.54"] ;
42 -> 48 ;
49 [label="squared_error = 0.0\nsamples = 1\nvalue = 28.5"] ;
48 -> 49 ;
50 [label="X3 distance to the nearest MRT station <= 206.879\nsquared_error = 21.844\nsamples = 14\nvalue = 46.757"] ;
48 -> 50 ;
51 [label="X3 distance to the nearest MRT station <= 197.739\nsquared_error = 15.351\nsamples = 8\nvalue = 49.612"] ;
50 -> 51 ;
52 [label="X3 distance to the nearest MRT station <= 191.812\nsquared_error = 5.938\nsamples = 5\nvalue = 47.54"] ;
51 -> 52 ;
53 [label="squared_error = 0.0\nsamples = 1\nvalue = 44.3"] ;
52 -> 53 ;
54 [label="squared_error = 4.143\nsamples = 4\nvalue = 48.35"] ;
52 -> 54 ;
55 [label="X3 distance to the nearest MRT station <= 203.032\nsquared_error = 11.949\nsamples = 3\nvalue = 53.067"] ;
51 -> 55 ;
56 [label="squared_error = 0.0\nsamples = 1\nvalue = 55.9"] ;
55 -> 56 ;
57 [label="X3 distance to the nearest MRT station <= 204.769\nsquared_error = 11.902\nsamples = 2\nvalue = 51.65"] ;
55 -> 57 ;
58 [label="squared_error = 0.0\nsamples = 1\nvalue = 48.2"] ;
57 -> 58 ;
59 [label="squared_error = -0.0\nsamples = 1\nvalue = 55.1"] ;
57 -> 59 ;
60 [label="X3 distance to the nearest MRT station <= 231.039\nsquared_error = 5.136\nsamples = 6\nvalue = 42.95"] ;
50 -> 60 ;
61 [label="X3 distance to the nearest MRT station <= 209.919\nsquared_error = 0.527\nsamples = 3\nvalue = 45.0"] ;
60 -> 61 ;
62 [label="squared_error = 0.723\nsamples = 2\nvalue = 44.85"] ;
61 -> 62 ;
63 [label="squared_error = 0.0\nsamples = 1\nvalue = 45.3"] ;
61 -> 63 ;
64 [label="squared_error = 1.34\nsamples = 3\nvalue = 40.9"] ;
60 -> 64 ;
65 [label="X3 distance to the nearest MRT station <= 255.384\nsquared_error = 281.661\nsamples = 23\nvalue = 50.939"] ;
17 -> 65 ;
66 [label="squared_error = 0.0\nsamples = 1\nvalue = 117.5"] ;
65 -> 66 ;
67 [label="X3 distance to the nearest MRT station <= 277.811\nsquared_error = 83.93\nsamples = 22\nvalue = 47.914"] ;
65 -> 67 ;
68 [label="X3 distance to the nearest MRT station <= 262.361\nsquared_error = 111.597\nsamples = 9\nvalue = 43.611"] ;
67 -> 68 ;
69 [label="X3 distance to the nearest MRT station <= 258.923\nsquared_error = 124.069\nsamples = 3\nvalue = 51.067"] ;
68 -> 69 ;
70 [label="squared_error = 0.0\nsamples = 1\nvalue = 36.3"] ;
69 -> 70 ;
71 [label="squared_error = 22.563\nsamples = 2\nvalue = 58.45"] ;
69 -> 71 ;
72 [label="X3 distance to the nearest MRT station <= 273.346\nsquared_error = 63.671\nsamples = 6\nvalue = 39.883"] ;
68 -> 72 ;
73 [label="X3 distance to the nearest MRT station <= 271.784\nsquared_error = 48.909\nsamples = 3\nvalue = 36.667"] ;
72 -> 73 ;
74 [label="X3 distance to the nearest MRT station <= 267.975\nsquared_error = 1.823\nsamples = 2\nvalue = 41.55"] ;
73 -> 74 ;
75 [label="squared_error = 0.0\nsamples = 1\nvalue = 40.2"] ;
74 -> 75 ;
76 [label="squared_error = 0.0\nsamples = 1\nvalue = 42.9"] ;
74 -> 76 ;
77 [label="squared_error = -0.0\nsamples = 1\nvalue = 26.9"] ;
73 -> 77 ;
78 [label="X3 distance to the nearest MRT station <= 275.232\nsquared_error = 57.74\nsamples = 3\nvalue = 43.1"] ;
72 -> 78 ;
79 [label="squared_error = 18.922\nsamples = 2\nvalue = 47.85"] ;
78 -> 79 ;
80 [label="squared_error = 0.0\nsamples = 1\nvalue = 33.6"] ;
78 -> 80 ;
81 [label="X3 distance to the nearest MRT station <= 284.404\nsquared_error = 43.088\nsamples = 13\nvalue = 50.892"] ;
67 -> 81 ;
82 [label="X3 distance to the nearest MRT station <= 280.189\nsquared_error = 40.247\nsamples = 3\nvalue = 56.2"] ;
81 -> 82 ;
83 [label="squared_error = 22.562\nsamples = 2\nvalue = 52.65"] ;
82 -> 83 ;
84 [label="squared_error = 0.0\nsamples = 1\nvalue = 63.3"] ;
82 -> 84 ;
85 [label="X3 distance to the nearest MRT station <= 288.464\nsquared_error = 32.954\nsamples = 10\nvalue = 49.3"] ;
81 -> 85 ;
86 [label="squared_error = 0.0\nsamples = 1\nvalue = 46.7"] ;
85 -> 86 ;
87 [label="squared_error = 35.781\nsamples = 9\nvalue = 49.589"] ;
85 -> 87 ;
88 [label="X3 distance to the nearest MRT station <= 318.8\nsquared_error = 135.46\nsamples = 11\nvalue = 60.064"] ;
2 -> 88 ;
89 [label="X3 distance to the nearest MRT station <= 315.713\nsquared_error = 67.858\nsamples = 6\nvalue = 69.017"] ;
88 -> 89 ;
90 [label="X3 distance to the nearest MRT station <= 302.947\nsquared_error = 62.062\nsamples = 5\nvalue = 67.22"] ;
89 -> 90 ;
91 [label="squared_error = 2.305\nsamples = 4\nvalue = 71.1"] ;
90 -> 91 ;
92 [label="squared_error = 0.0\nsamples = 1\nvalue = 51.7"] ;
90 -> 92 ;
93 [label="squared_error = 0.0\nsamples = 1\nvalue = 78.0"] ;
89 -> 93 ;
94 [label="X3 distance to the nearest MRT station <= 327.458\nsquared_error = 4.97\nsamples = 5\nvalue = 49.32"] ;
88 -> 94 ;
95 [label="X3 distance to the nearest MRT station <= 324.317\nsquared_error = 4.436\nsamples = 3\nvalue = 48.133"] ;
94 -> 95 ;
96 [label="X3 distance to the nearest MRT station <= 321.381\nsquared_error = 3.24\nsamples = 2\nvalue = 49.2"] ;
95 -> 96 ;
97 [label="squared_error = 0.0\nsamples = 1\nvalue = 47.4"] ;
96 -> 97 ;
98 [label="squared_error = -0.0\nsamples = 1\nvalue = 51.0"] ;
96 -> 98 ;
99 [label="squared_error = 0.0\nsamples = 1\nvalue = 46.0"] ;
95 -> 99 ;
100 [label="squared_error = 0.49\nsamples = 2\nvalue = 51.1"] ;
94 -> 100 ;
101 [label="X3 distance to the nearest MRT station <= 390.769\nsquared_error = 78.656\nsamples = 92\nvalue = 40.676"] ;
1 -> 101 ;
102 [label="X3 distance to the nearest MRT station <= 383.497\nsquared_error = 58.445\nsamples = 26\nvalue = 44.988"] ;
101 -> 102 ;
103 [label="X3 distance to the nearest MRT station <= 338.285\nsquared_error = 48.224\nsamples = 16\nvalue = 42.537"] ;
102 -> 103 ;
104 [label="X3 distance to the nearest MRT station <= 331.727\nsquared_error = 20.077\nsamples = 4\nvalue = 38.675"] ;
103 -> 104 ;
105 [label="squared_error = 0.0\nsamples = 1\nvalue = 43.4"] ;
104 -> 105 ;
106 [label="X3 distance to the nearest MRT station <= 334.711\nsquared_error = 16.847\nsamples = 3\nvalue = 37.1"] ;
104 -> 106 ;
107 [label="squared_error = 0.0\nsamples = 1\nvalue = 32.4"] ;
106 -> 107 ;
108 [label="X3 distance to the nearest MRT station <= 336.827\nsquared_error = 8.702\nsamples = 2\nvalue = 39.45"] ;
106 -> 108 ;
109 [label="squared_error = 0.0\nsamples = 1\nvalue = 42.4"] ;
108 -> 109 ;
110 [label="squared_error = -0.0\nsamples = 1\nvalue = 36.5"] ;
108 -> 110 ;
111 [label="X3 distance to the nearest MRT station <= 375.817\nsquared_error = 50.975\nsamples = 12\nvalue = 43.825"] ;
103 -> 111 ;
112 [label="X3 distance to the nearest MRT station <= 373.616\nsquared_error = 53.533\nsamples = 7\nvalue = 46.086"] ;
111 -> 112 ;
113 [label="X3 distance to the nearest MRT station <= 344.91\nsquared_error = 13.826\nsamples = 6\nvalue = 43.45"] ;
112 -> 113 ;
114 [label="squared_error = 8.703\nsamples = 2\nvalue = 47.85"] ;
113 -> 114 ;
115 [label="X3 distance to the nearest MRT station <= 371.694\nsquared_error = 1.868\nsamples = 4\nvalue = 41.25"] ;
113 -> 115 ;
116 [label="X3 distance to the nearest MRT station <= 361.051\nsquared_error = 0.36\nsamples = 2\nvalue = 42.5"] ;
115 -> 116 ;
117 [label="squared_error = 0.0\nsamples = 1\nvalue = 43.1"] ;
116 -> 117 ;
118 [label="squared_error = 0.0\nsamples = 1\nvalue = 41.9"] ;
116 -> 118 ;
119 [label="X3 distance to the nearest MRT station <= 372.766\nsquared_error = 0.25\nsamples = 2\nvalue = 40.0"] ;
115 -> 119 ;
120 [label="squared_error = 0.0\nsamples = 1\nvalue = 40.5"] ;
119 -> 120 ;
121 [label="squared_error = 0.0\nsamples = 1\nvalue = 39.5"] ;
119 -> 121 ;
122 [label="squared_error = 0.0\nsamples = 1\nvalue = 61.9"] ;
112 -> 122 ;
123 [label="X3 distance to the nearest MRT station <= 378.694\nsquared_error = 30.222\nsamples = 5\nvalue = 40.66"] ;
111 -> 123 ;
124 [label="X3 distance to the nearest MRT station <= 377.813\nsquared_error = 0.81\nsamples = 2\nvalue = 37.7"] ;
123 -> 124 ;
125 [label="squared_error = 0.0\nsamples = 1\nvalue = 36.8"] ;
124 -> 125 ;
126 [label="squared_error = -0.0\nsamples = 1\nvalue = 38.6"] ;
124 -> 126 ;
127 [label="X3 distance to the nearest MRT station <= 381.419\nsquared_error = 40.096\nsamples = 3\nvalue = 42.633"] ;
123 -> 127 ;
128 [label="squared_error = 0.0\nsamples = 1\nvalue = 49.8"] ;
127 -> 128 ;
129 [label="squared_error = 21.623\nsamples = 2\nvalue = 39.05"] ;
127 -> 129 ;
130 [label="X3 distance to the nearest MRT station <= 385.817\nsquared_error = 49.809\nsamples = 10\nvalue = 48.91"] ;
102 -> 130 ;
131 [label="X3 distance to the nearest MRT station <= 383.788\nsquared_error = 23.092\nsamples = 4\nvalue = 55.95"] ;
130 -> 131 ;
132 [label="squared_error = 0.0\nsamples = 1\nvalue = 48.1"] ;
131 -> 132 ;
133 [label="squared_error = 3.402\nsamples = 3\nvalue = 58.567"] ;
131 -> 133 ;
134 [label="X3 distance to the nearest MRT station <= 389.17\nsquared_error = 12.551\nsamples = 6\nvalue = 44.217"] ;
130 -> 134 ;
135 [label="squared_error = 0.003\nsamples = 2\nvalue = 44.75"] ;
134 -> 135 ;
136 [label="squared_error = 18.612\nsamples = 4\nvalue = 43.95"] ;
134 -> 136 ;
137 [label="X3 distance to the nearest MRT station <= 418.213\nsquared_error = 76.406\nsamples = 66\nvalue = 38.977"] ;
101 -> 137 ;
138 [label="X3 distance to the nearest MRT station <= 392.115\nsquared_error = 132.891\nsamples = 6\nvalue = 30.217"] ;
137 -> 138 ;
139 [label="squared_error = 0.0\nsamples = 1\nvalue = 40.6"] ;
138 -> 139 ;
140 [label="X3 distance to the nearest MRT station <= 393.639\nsquared_error = 133.594\nsamples = 5\nvalue = 28.14"] ;
138 -> 140 ;
141 [label="squared_error = 0.0\nsamples = 1\nvalue = 7.6"] ;
140 -> 141 ;
142 [label="X3 distance to the nearest MRT station <= 394.846\nsquared_error = 35.152\nsamples = 4\nvalue = 33.275"] ;
140 -> 142 ;
143 [label="squared_error = 0.0\nsamples = 1\nvalue = 41.0"] ;
142 -> 143 ;
144 [label="X3 distance to the nearest MRT station <= 398.778\nsquared_error = 20.347\nsamples = 3\nvalue = 30.7"] ;
142 -> 144 ;
145 [label="squared_error = 0.0\nsamples = 1\nvalue = 24.5"] ;
144 -> 145 ;
146 [label="X3 distance to the nearest MRT station <= 408.414\nsquared_error = 1.69\nsamples = 2\nvalue = 33.8"] ;
144 -> 146 ;
147 [label="squared_error = 0.0\nsamples = 1\nvalue = 35.1"] ;
146 -> 147 ;
148 [label="squared_error = 0.0\nsamples = 1\nvalue = 32.5"] ;
146 -> 148 ;
149 [label="X3 distance to the nearest MRT station <= 451.443\nsquared_error = 62.315\nsamples = 60\nvalue = 39.853"] ;
137 -> 149 ;
150 [label="X3 distance to the nearest MRT station <= 447.689\nsquared_error = 55.231\nsamples = 9\nvalue = 44.156"] ;
149 -> 150 ;
151 [label="X3 distance to the nearest MRT station <= 423.096\nsquared_error = 42.65\nsamples = 7\nvalue = 42.114"] ;
150 -> 151 ;
152 [label="squared_error = 0.0\nsamples = 1\nvalue = 49.3"] ;
151 -> 152 ;
153 [label="X3 distance to the nearest MRT station <= 427.912\nsquared_error = 39.718\nsamples = 6\nvalue = 40.917"] ;
151 -> 153 ;
154 [label="squared_error = 0.0\nsamples = 1\nvalue = 30.0"] ;
153 -> 154 ;
155 [label="X3 distance to the nearest MRT station <= 435.445\nsquared_error = 19.06\nsamples = 5\nvalue = 43.1"] ;
153 -> 155 ;
156 [label="X3 distance to the nearest MRT station <= 431.575\nsquared_error = 2.722\nsamples = 2\nvalue = 46.85"] ;
155 -> 156 ;
157 [label="squared_error = 0.0\nsamples = 1\nvalue = 48.5"] ;
156 -> 157 ;
158 [label="squared_error = -0.0\nsamples = 1\nvalue = 45.2"] ;
156 -> 158 ;
159 [label="X3 distance to the nearest MRT station <= 443.968\nsquared_error = 14.327\nsamples = 3\nvalue = 40.6"] ;
155 -> 159 ;
160 [label="X3 distance to the nearest MRT station <= 441.327\nsquared_error = 13.323\nsamples = 2\nvalue = 38.95"] ;
159 -> 160 ;
161 [label="squared_error = 0.0\nsamples = 1\nvalue = 42.6"] ;
160 -> 161 ;
162 [label="squared_error = -0.0\nsamples = 1\nvalue = 35.3"] ;
160 -> 162 ;
163 [label="squared_error = -0.0\nsamples = 1\nvalue = 43.9"] ;
159 -> 163 ;
164 [label="squared_error = 33.64\nsamples = 2\nvalue = 51.3"] ;
150 -> 164 ;
165 [label="X3 distance to the nearest MRT station <= 472.46\nsquared_error = 59.723\nsamples = 51\nvalue = 39.094"] ;
149 -> 165 ;
166 [label="X3 distance to the nearest MRT station <= 456.372\nsquared_error = 9.325\nsamples = 7\nvalue = 33.071"] ;
165 -> 166 ;
167 [label="squared_error = 6.502\nsamples = 2\nvalue = 29.05"] ;
166 -> 167 ;
168 [label="X3 distance to the nearest MRT station <= 461.443\nsquared_error = 1.398\nsamples = 5\nvalue = 34.68"] ;
166 -> 168 ;
169 [label="squared_error = 0.496\nsamples = 3\nvalue = 33.833"] ;
168 -> 169 ;
170 [label="X3 distance to the nearest MRT station <= 463.004\nsquared_error = 0.062\nsamples = 2\nvalue = 35.95"] ;
168 -> 170 ;
171 [label="squared_error = 0.0\nsamples = 1\nvalue = 35.7"] ;
170 -> 171 ;
172 [label="squared_error = -0.0\nsamples = 1\nvalue = 36.2"] ;
170 -> 172 ;
173 [label="X3 distance to the nearest MRT station <= 641.719\nsquared_error = 61.052\nsamples = 44\nvalue = 40.052"] ;
165 -> 173 ;
174 [label="X3 distance to the nearest MRT station <= 640.179\nsquared_error = 51.554\nsamples = 26\nvalue = 41.965"] ;
173 -> 174 ;
175 [label="X3 distance to the nearest MRT station <= 583.548\nsquared_error = 37.741\nsamples = 25\nvalue = 41.184"] ;
174 -> 175 ;
176 [label="X3 distance to the nearest MRT station <= 557.211\nsquared_error = 36.318\nsamples = 20\nvalue = 42.39"] ;
175 -> 176 ;
177 [label="X3 distance to the nearest MRT station <= 545.117\nsquared_error = 27.406\nsamples = 15\nvalue = 40.487"] ;
176 -> 177 ;
178 [label="X3 distance to the nearest MRT station <= 526.469\nsquared_error = 20.624\nsamples = 14\nvalue = 41.25"] ;
177 -> 178 ;
179 [label="X3 distance to the nearest MRT station <= 516.005\nsquared_error = 9.366\nsamples = 12\nvalue = 40.117"] ;
178 -> 179 ;
180 [label="X3 distance to the nearest MRT station <= 489.351\nsquared_error = 7.308\nsamples = 11\nvalue = 40.609"] ;
179 -> 180 ;
181 [label="X3 distance to the nearest MRT station <= 481.728\nsquared_error = 3.19\nsamples = 5\nvalue = 38.36"] ;
180 -> 181 ;
182 [label="squared_error = 0.0\nsamples = 1\nvalue = 38.8"] ;
181 -> 182 ;
183 [label="X3 distance to the nearest MRT station <= 485.789\nsquared_error = 3.928\nsamples = 4\nvalue = 38.25"] ;
181 -> 183 ;
184 [label="squared_error = 7.84\nsamples = 2\nvalue = 38.3"] ;
183 -> 184 ;
185 [label="squared_error = 0.01\nsamples = 2\nvalue = 38.2"] ;
183 -> 185 ;
186 [label="X3 distance to the nearest MRT station <= 502.39\nsquared_error = 3.011\nsamples = 6\nvalue = 42.483"] ;
180 -> 186 ;
187 [label="X3 distance to the nearest MRT station <= 491.057\nsquared_error = 3.593\nsamples = 4\nvalue = 42.05"] ;
186 -> 187 ;
188 [label="squared_error = 0.0\nsamples = 1\nvalue = 43.2"] ;
187 -> 188 ;
189 [label="squared_error = 4.202\nsamples = 3\nvalue = 41.667"] ;
187 -> 189 ;
190 [label="squared_error = 0.723\nsamples = 2\nvalue = 43.35"] ;
186 -> 190 ;
191 [label="squared_error = 0.0\nsamples = 1\nvalue = 34.7"] ;
179 -> 191 ;
192 [label="X3 distance to the nearest MRT station <= 535.637\nsquared_error = 34.223\nsamples = 2\nvalue = 48.05"] ;
178 -> 192 ;
193 [label="squared_error = 0.0\nsamples = 1\nvalue = 53.9"] ;
192 -> 193 ;
194 [label="squared_error = 0.0\nsamples = 1\nvalue = 42.2"] ;
192 -> 194 ;
195 [label="squared_error = 0.0\nsamples = 1\nvalue = 29.8"] ;
177 -> 195 ;
196 [label="X3 distance to the nearest MRT station <= 569.973\nsquared_error = 19.58\nsamples = 5\nvalue = 48.1"] ;
176 -> 196 ;
197 [label="squared_error = 19.803\nsamples = 2\nvalue = 50.35"] ;
196 -> 197 ;
198 [label="X3 distance to the nearest MRT station <= 578.585\nsquared_error = 13.807\nsamples = 3\nvalue = 46.6"] ;
196 -> 198 ;
199 [label="squared_error = 9.302\nsamples = 2\nvalue = 44.65"] ;
198 -> 199 ;
200 [label="squared_error = 0.0\nsamples = 1\nvalue = 50.5"] ;
198 -> 200 ;
201 [label="X3 distance to the nearest MRT station <= 615.926\nsquared_error = 14.346\nsamples = 5\nvalue = 36.36"] ;
175 -> 201 ;
202 [label="X3 distance to the nearest MRT station <= 594.374\nsquared_error = 7.287\nsamples = 3\nvalue = 33.8"] ;
201 -> 202 ;
203 [label="squared_error = 0.0\nsamples = 1\nvalue = 37.4"] ;
202 -> 203 ;
204 [label="X3 distance to the nearest MRT station <= 607.5\nsquared_error = 1.21\nsamples = 2\nvalue = 32.0"] ;
202 -> 204 ;
205 [label="squared_error = 0.0\nsamples = 1\nvalue = 30.9"] ;
204 -> 205 ;
206 [label="squared_error = 0.0\nsamples = 1\nvalue = 33.1"] ;
204 -> 206 ;
207 [label="X3 distance to the nearest MRT station <= 628.667\nsquared_error = 0.36\nsamples = 2\nvalue = 40.2"] ;
201 -> 207 ;
208 [label="squared_error = 0.0\nsamples = 1\nvalue = 39.6"] ;
207 -> 208 ;
209 [label="squared_error = -0.0\nsamples = 1\nvalue = 40.8"] ;
207 -> 209 ;
210 [label="squared_error = 0.0\nsamples = 1\nvalue = 61.5"] ;
174 -> 210 ;
211 [label="X3 distance to the nearest MRT station <= 821.207\nsquared_error = 61.848\nsamples = 18\nvalue = 37.289"] ;
173 -> 211 ;
212 [label="X3 distance to the nearest MRT station <= 787.047\nsquared_error = 83.476\nsamples = 11\nvalue = 38.6"] ;
211 -> 212 ;
213 [label="X3 distance to the nearest MRT station <= 763.371\nsquared_error = 26.87\nsamples = 10\nvalue = 36.17"] ;
212 -> 213 ;
214 [label="X3 distance to the nearest MRT station <= 686.485\nsquared_error = 14.452\nsamples = 9\nvalue = 37.411"] ;
213 -> 214 ;
215 [label="X3 distance to the nearest MRT station <= 653.881\nsquared_error = 1.822\nsamples = 2\nvalue = 32.85"] ;
214 -> 215 ;
216 [label="squared_error = 0.0\nsamples = 1\nvalue = 31.5"] ;
215 -> 216 ;
217 [label="squared_error = 0.0\nsamples = 1\nvalue = 34.2"] ;
215 -> 217 ;
218 [label="X3 distance to the nearest MRT station <= 743.993\nsquared_error = 10.418\nsamples = 7\nvalue = 38.714"] ;
214 -> 218 ;
219 [label="X3 distance to the nearest MRT station <= 735.384\nsquared_error = 17.396\nsamples = 3\nvalue = 40.667"] ;
218 -> 219 ;
220 [label="X3 distance to the nearest MRT station <= 720.38\nsquared_error = 1.44\nsamples = 2\nvalue = 37.8"] ;
219 -> 220 ;
221 [label="squared_error = 0.0\nsamples = 1\nvalue = 36.6"] ;
220 -> 221 ;
222 [label="squared_error = 0.0\nsamples = 1\nvalue = 39.0"] ;
220 -> 222 ;
223 [label="squared_error = -0.0\nsamples = 1\nvalue = 46.4"] ;
219 -> 223 ;
224 [label="X3 distance to the nearest MRT station <= 755.052\nsquared_error = 0.182\nsamples = 4\nvalue = 37.25"] ;
218 -> 224 ;
225 [label="X3 distance to the nearest MRT station <= 751.419\nsquared_error = 0.109\nsamples = 3\nvalue = 37.433"] ;
224 -> 225 ;
226 [label="squared_error = 0.16\nsamples = 2\nvalue = 37.4"] ;
225 -> 226 ;
227 [label="squared_error = 0.0\nsamples = 1\nvalue = 37.5"] ;
225 -> 227 ;
228 [label="squared_error = -0.0\nsamples = 1\nvalue = 36.7"] ;
224 -> 228 ;
229 [label="squared_error = 0.0\nsamples = 1\nvalue = 25.0"] ;
213 -> 229 ;
230 [label="squared_error = 0.0\nsamples = 1\nvalue = 62.9"] ;
212 -> 230 ;
231 [label="X3 distance to the nearest MRT station <= 941.693\nsquared_error = 20.913\nsamples = 7\nvalue = 35.229"] ;
211 -> 231 ;
232 [label="X3 distance to the nearest MRT station <= 878.18\nsquared_error = 1.696\nsamples = 3\nvalue = 30.133"] ;
231 -> 232 ;
233 [label="squared_error = 0.202\nsamples = 2\nvalue = 29.25"] ;
232 -> 233 ;
234 [label="squared_error = 0.0\nsamples = 1\nvalue = 31.9"] ;
232 -> 234 ;
235 [label="X3 distance to the nearest MRT station <= 966.075\nsquared_error = 1.252\nsamples = 4\nvalue = 39.05"] ;
231 -> 235 ;
236 [label="squared_error = 0.062\nsamples = 2\nvalue = 37.95"] ;
235 -> 236 ;
237 [label="squared_error = 0.022\nsamples = 2\nvalue = 40.15"] ;
235 -> 237 ;
238 [label="X3 distance to the nearest MRT station <= 4007.266\nsquared_error = 40.749\nsamples = 88\nvalue = 22.92"] ;
0 -> 238 [labeldistance=2.5, labelangle=-45, headlabel="False"] ;
239 [label="X3 distance to the nearest MRT station <= 1162.735\nsquared_error = 29.263\nsamples = 62\nvalue = 25.54"] ;
238 -> 239 ;
240 [label="X3 distance to the nearest MRT station <= 1145.383\nsquared_error = 39.92\nsamples = 10\nvalue = 20.27"] ;
239 -> 240 ;
241 [label="X3 distance to the nearest MRT station <= 1099.752\nsquared_error = 25.312\nsamples = 4\nvalue = 25.875"] ;
240 -> 241 ;
242 [label="X3 distance to the nearest MRT station <= 1002.495\nsquared_error = 3.682\nsamples = 3\nvalue = 23.133"] ;
241 -> 242 ;
243 [label="squared_error = 0.0\nsamples = 1\nvalue = 25.5"] ;
242 -> 243 ;
244 [label="X3 distance to the nearest MRT station <= 1032.151\nsquared_error = 1.322\nsamples = 2\nvalue = 21.95"] ;
242 -> 244 ;
245 [label="squared_error = 0.0\nsamples = 1\nvalue = 20.8"] ;
244 -> 245 ;
246 [label="squared_error = -0.0\nsamples = 1\nvalue = 23.1"] ;
244 -> 246 ;
247 [label="squared_error = 0.0\nsamples = 1\nvalue = 34.1"] ;
241 -> 247 ;
248 [label="X3 distance to the nearest MRT station <= 1158.721\nsquared_error = 14.752\nsamples = 6\nvalue = 16.533"] ;
240 -> 248 ;
249 [label="X3 distance to the nearest MRT station <= 1157.383\nsquared_error = 16.317\nsamples = 4\nvalue = 17.925"] ;
248 -> 249 ;
250 [label="X3 distance to the nearest MRT station <= 1156.594\nsquared_error = 6.416\nsamples = 3\nvalue = 15.967"] ;
249 -> 250 ;
251 [label="X3 distance to the nearest MRT station <= 1151.37\nsquared_error = 2.102\nsamples = 2\nvalue = 17.55"] ;
250 -> 251 ;
252 [label="squared_error = 0.0\nsamples = 1\nvalue = 16.1"] ;
251 -> 252 ;
253 [label="squared_error = 0.0\nsamples = 1\nvalue = 19.0"] ;
251 -> 253 ;
254 [label="squared_error = 0.0\nsamples = 1\nvalue = 12.8"] ;
250 -> 254 ;
255 [label="squared_error = 0.0\nsamples = 1\nvalue = 23.8"] ;
249 -> 255 ;
256 [label="X3 distance to the nearest MRT station <= 1160.043\nsquared_error = 0.003\nsamples = 2\nvalue = 13.75"] ;
248 -> 256 ;
257 [label="squared_error = 0.0\nsamples = 1\nvalue = 13.8"] ;
256 -> 257 ;
258 [label="squared_error = 0.0\nsamples = 1\nvalue = 13.7"] ;
256 -> 258 ;
259 [label="X3 distance to the nearest MRT station <= 1250.647\nsquared_error = 20.845\nsamples = 52\nvalue = 26.554"] ;
239 -> 259 ;
260 [label="X3 distance to the nearest MRT station <= 1200.701\nsquared_error = 2.296\nsamples = 3\nvalue = 32.367"] ;
259 -> 260 ;
261 [label="squared_error = 1.102\nsamples = 2\nvalue = 33.25"] ;
260 -> 261 ;
262 [label="squared_error = 0.0\nsamples = 1\nvalue = 30.6"] ;
260 -> 262 ;
263 [label="X3 distance to the nearest MRT station <= 1312.435\nsquared_error = 19.786\nsamples = 49\nvalue = 26.198"] ;
259 -> 263 ;
264 [label="squared_error = 0.16\nsamples = 2\nvalue = 18.7"] ;
263 -> 264 ;
265 [label="X3 distance to the nearest MRT station <= 2177.667\nsquared_error = 18.127\nsamples = 47\nvalue = 26.517"] ;
263 -> 265 ;
266 [label="X3 distance to the nearest MRT station <= 2028.03\nsquared_error = 19.123\nsamples = 33\nvalue = 27.348"] ;
265 -> 266 ;
267 [label="X3 distance to the nearest MRT station <= 1408.427\nsquared_error = 20.051\nsamples = 27\nvalue = 26.811"] ;
266 -> 267 ;
268 [label="X3 distance to the nearest MRT station <= 1381.078\nsquared_error = 19.636\nsamples = 6\nvalue = 29.45"] ;
267 -> 268 ;
269 [label="squared_error = 3.906\nsamples = 5\nvalue = 27.64"] ;
268 -> 269 ;
270 [label="squared_error = 0.0\nsamples = 1\nvalue = 38.5"] ;
268 -> 270 ;
271 [label="X3 distance to the nearest MRT station <= 1452.76\nsquared_error = 17.612\nsamples = 21\nvalue = 26.057"] ;
267 -> 271 ;
272 [label="X3 distance to the nearest MRT station <= 1431.062\nsquared_error = 5.896\nsamples = 3\nvalue = 23.167"] ;
271 -> 272 ;
273 [label="squared_error = 0.0\nsamples = 1\nvalue = 26.6"] ;
272 -> 273 ;
274 [label="X3 distance to the nearest MRT station <= 1448.504\nsquared_error = 0.002\nsamples = 2\nvalue = 21.45"] ;
272 -> 274 ;
275 [label="squared_error = 0.0\nsamples = 1\nvalue = 21.5"] ;
274 -> 275 ;
276 [label="squared_error = 0.0\nsamples = 1\nvalue = 21.4"] ;
274 -> 276 ;
277 [label="X3 distance to the nearest MRT station <= 1726.394\nsquared_error = 17.94\nsamples = 18\nvalue = 26.539"] ;
271 -> 277 ;
278 [label="X3 distance to the nearest MRT station <= 1592.955\nsquared_error = 12.893\nsamples = 9\nvalue = 27.533"] ;
277 -> 278 ;
279 [label="X3 distance to the nearest MRT station <= 1557.039\nsquared_error = 13.998\nsamples = 5\nvalue = 26.82"] ;
278 -> 279 ;
280 [label="X3 distance to the nearest MRT station <= 1525.982\nsquared_error = 9.305\nsamples = 4\nvalue = 28.1"] ;
279 -> 280 ;
281 [label="X3 distance to the nearest MRT station <= 1491.405\nsquared_error = 8.407\nsamples = 3\nvalue = 27.1"] ;
280 -> 281 ;
282 [label="X3 distance to the nearest MRT station <= 1470.448\nsquared_error = 3.422\nsamples = 2\nvalue = 28.85"] ;
281 -> 282 ;
283 [label="squared_error = 0.0\nsamples = 1\nvalue = 27.0"] ;
282 -> 283 ;
284 [label="squared_error = -0.0\nsamples = 1\nvalue = 30.7"] ;
282 -> 284 ;
285 [label="squared_error = -0.0\nsamples = 1\nvalue = 23.6"] ;
281 -> 285 ;
286 [label="squared_error = 0.0\nsamples = 1\nvalue = 31.1"] ;
280 -> 286 ;
287 [label="squared_error = -0.0\nsamples = 1\nvalue = 21.7"] ;
279 -> 287 ;
288 [label="X3 distance to the nearest MRT station <= 1714.912\nsquared_error = 10.082\nsamples = 4\nvalue = 28.425"] ;
278 -> 288 ;
289 [label="X3 distance to the nearest MRT station <= 1669.357\nsquared_error = 0.49\nsamples = 2\nvalue = 30.1"] ;
288 -> 289 ;
290 [label="squared_error = 0.0\nsamples = 1\nvalue = 29.4"] ;
289 -> 290 ;
291 [label="squared_error = -0.0\nsamples = 1\nvalue = 30.8"] ;
289 -> 291 ;
292 [label="squared_error = 14.063\nsamples = 2\nvalue = 26.75"] ;
288 -> 292 ;
293 [label="X3 distance to the nearest MRT station <= 1847.776\nsquared_error = 21.009\nsamples = 9\nvalue = 25.544"] ;
277 -> 293 ;
294 [label="X3 distance to the nearest MRT station <= 1814.931\nsquared_error = 3.457\nsamples = 4\nvalue = 23.825"] ;
293 -> 294 ;
295 [label="X3 distance to the nearest MRT station <= 1759.388\nsquared_error = 0.807\nsamples = 3\nvalue = 24.8"] ;
294 -> 295 ;
296 [label="squared_error = 0.0\nsamples = 1\nvalue = 25.9"] ;
295 -> 296 ;
297 [label="X3 distance to the nearest MRT station <= 1792.362\nsquared_error = 0.303\nsamples = 2\nvalue = 24.25"] ;
295 -> 297 ;
298 [label="squared_error = 0.0\nsamples = 1\nvalue = 23.7"] ;
297 -> 298 ;
299 [label="squared_error = 0.0\nsamples = 1\nvalue = 24.8"] ;
297 -> 299 ;
300 [label="squared_error = -0.0\nsamples = 1\nvalue = 20.9"] ;
294 -> 300 ;
301 [label="X3 distance to the nearest MRT station <= 1899.22\nsquared_error = 30.794\nsamples = 5\nvalue = 26.92"] ;
293 -> 301 ;
302 [label="squared_error = 0.0\nsamples = 1\nvalue = 35.6"] ;
301 -> 302 ;
303 [label="X3 distance to the nearest MRT station <= 1937.379\nsquared_error = 14.947\nsamples = 4\nvalue = 24.75"] ;
301 -> 303 ;
304 [label="X3 distance to the nearest MRT station <= 1933.108\nsquared_error = 0.64\nsamples = 2\nvalue = 22.1"] ;
303 -> 304 ;
305 [label="squared_error = 0.0\nsamples = 1\nvalue = 21.3"] ;
304 -> 305 ;
306 [label="squared_error = -0.0\nsamples = 1\nvalue = 22.9"] ;
304 -> 306 ;
307 [label="X3 distance to the nearest MRT station <= 1959.21\nsquared_error = 15.21\nsamples = 2\nvalue = 27.4"] ;
303 -> 307 ;
308 [label="squared_error = 0.0\nsamples = 1\nvalue = 31.3"] ;
307 -> 308 ;
309 [label="squared_error = 0.0\nsamples = 1\nvalue = 23.5"] ;
307 -> 309 ;
310 [label="X3 distance to the nearest MRT station <= 2090.472\nsquared_error = 7.799\nsamples = 6\nvalue = 29.767"] ;
266 -> 310 ;
311 [label="squared_error = 0.0\nsamples = 1\nvalue = 33.4"] ;
310 -> 311 ;
312 [label="X3 distance to the nearest MRT station <= 2125.465\nsquared_error = 6.19\nsamples = 5\nvalue = 29.04"] ;
310 -> 312 ;
313 [label="squared_error = 0.0\nsamples = 1\nvalue = 25.6"] ;
312 -> 313 ;
314 [label="X3 distance to the nearest MRT station <= 2175.387\nsquared_error = 4.04\nsamples = 4\nvalue = 29.9"] ;
312 -> 314 ;
315 [label="X3 distance to the nearest MRT station <= 2161.203\nsquared_error = 3.947\nsamples = 3\nvalue = 30.5"] ;
314 -> 315 ;
316 [label="squared_error = 0.0\nsamples = 1\nvalue = 31.7"] ;
315 -> 316 ;
317 [label="squared_error = 4.84\nsamples = 2\nvalue = 29.9"] ;
315 -> 317 ;
318 [label="squared_error = -0.0\nsamples = 1\nvalue = 28.1"] ;
314 -> 318 ;
319 [label="X3 distance to the nearest MRT station <= 3303.87\nsquared_error = 10.307\nsamples = 14\nvalue = 24.557"] ;
265 -> 319 ;
320 [label="X3 distance to the nearest MRT station <= 2691.177\nsquared_error = 9.895\nsamples = 12\nvalue = 24.1"] ;
319 -> 320 ;
321 [label="X3 distance to the nearest MRT station <= 2179.918\nsquared_error = 6.615\nsamples = 10\nvalue = 24.95"] ;
320 -> 321 ;
322 [label="squared_error = 0.0\nsamples = 1\nvalue = 21.8"] ;
321 -> 322 ;
323 [label="X3 distance to the nearest MRT station <= 2274.721\nsquared_error = 6.124\nsamples = 9\nvalue = 25.3"] ;
321 -> 323 ;
324 [label="X3 distance to the nearest MRT station <= 2234.275\nsquared_error = 6.894\nsamples = 5\nvalue = 26.42"] ;
323 -> 324 ;
325 [label="X3 distance to the nearest MRT station <= 2182.687\nsquared_error = 6.327\nsamples = 3\nvalue = 25.1"] ;
324 -> 325 ;
326 [label="squared_error = 0.0\nsamples = 1\nvalue = 28.6"] ;
325 -> 326 ;
327 [label="X3 distance to the nearest MRT station <= 2200.87\nsquared_error = 0.302\nsamples = 2\nvalue = 23.35"] ;
325 -> 327 ;
328 [label="squared_error = 0.0\nsamples = 1\nvalue = 22.8"] ;
327 -> 328 ;
329 [label="squared_error = -0.0\nsamples = 1\nvalue = 23.9"] ;
327 -> 329 ;
330 [label="X3 distance to the nearest MRT station <= 2256.685\nsquared_error = 1.21\nsamples = 2\nvalue = 28.4"] ;
324 -> 330 ;
331 [label="squared_error = 0.0\nsamples = 1\nvalue = 27.3"] ;
330 -> 331 ;
332 [label="squared_error = 0.0\nsamples = 1\nvalue = 29.5"] ;
330 -> 332 ;
333 [label="X3 distance to the nearest MRT station <= 2541.977\nsquared_error = 1.635\nsamples = 4\nvalue = 23.9"] ;
323 -> 333 ;
334 [label="X3 distance to the nearest MRT station <= 2348.502\nsquared_error = 0.74\nsamples = 3\nvalue = 23.3"] ;
333 -> 334 ;
335 [label="squared_error = 0.36\nsamples = 2\nvalue = 23.8"] ;
334 -> 335 ;
336 [label="squared_error = 0.0\nsamples = 1\nvalue = 22.3"] ;
334 -> 336 ;
337 [label="squared_error = 0.0\nsamples = 1\nvalue = 25.7"] ;
333 -> 337 ;
338 [label="X3 distance to the nearest MRT station <= 2892.784\nsquared_error = 4.623\nsamples = 2\nvalue = 19.85"] ;
320 -> 338 ;
339 [label="squared_error = 0.0\nsamples = 1\nvalue = 17.7"] ;
338 -> 339 ;
340 [label="squared_error = -0.0\nsamples = 1\nvalue = 22.0"] ;
338 -> 340 ;
341 [label="X3 distance to the nearest MRT station <= 3738.755\nsquared_error = 4.0\nsamples = 2\nvalue = 27.3"] ;
319 -> 341 ;
342 [label="squared_error = 0.0\nsamples = 1\nvalue = 29.3"] ;
341 -> 342 ;
343 [label="squared_error = -0.0\nsamples = 1\nvalue = 25.3"] ;
341 -> 343 ;
344 [label="X3 distance to the nearest MRT station <= 4523.688\nsquared_error = 12.74\nsamples = 26\nvalue = 16.673"] ;
238 -> 344 ;
345 [label="X3 distance to the nearest MRT station <= 4109.143\nsquared_error = 12.427\nsamples = 20\nvalue = 17.495"] ;
344 -> 345 ;
346 [label="X3 distance to the nearest MRT station <= 4078.375\nsquared_error = 8.592\nsamples = 11\nvalue = 16.855"] ;
345 -> 346 ;
347 [label="X3 distance to the nearest MRT station <= 4070.661\nsquared_error = 12.786\nsamples = 6\nvalue = 16.433"] ;
346 -> 347 ;
348 [label="squared_error = 14.622\nsamples = 5\nvalue = 16.78"] ;
347 -> 348 ;
349 [label="squared_error = -0.0\nsamples = 1\nvalue = 14.7"] ;
347 -> 349 ;
350 [label="squared_error = 3.09\nsamples = 5\nvalue = 17.36"] ;
346 -> 350 ;
351 [label="X3 distance to the nearest MRT station <= 4166.81\nsquared_error = 16.002\nsamples = 9\nvalue = 18.278"] ;
345 -> 351 ;
352 [label="squared_error = 0.0\nsamples = 1\nvalue = 24.7"] ;
351 -> 352 ;
353 [label="X3 distance to the nearest MRT station <= 4479.814\nsquared_error = 12.202\nsamples = 8\nvalue = 17.475"] ;
351 -> 353 ;
354 [label="X3 distance to the nearest MRT station <= 4323.31\nsquared_error = 6.232\nsamples = 4\nvalue = 16.575"] ;
353 -> 354 ;
355 [label="squared_error = 7.796\nsamples = 3\nvalue = 16.933"] ;
354 -> 355 ;
356 [label="squared_error = -0.0\nsamples = 1\nvalue = 15.5"] ;
354 -> 356 ;
357 [label="X3 distance to the nearest MRT station <= 4515.024\nsquared_error = 16.552\nsamples = 4\nvalue = 18.375"] ;
353 -> 357 ;
358 [label="squared_error = 22.09\nsamples = 2\nvalue = 17.9"] ;
357 -> 358 ;
359 [label="squared_error = 10.562\nsamples = 2\nvalue = 18.85"] ;
357 -> 359 ;
360 [label="X3 distance to the nearest MRT station <= 6351.218\nsquared_error = 4.022\nsamples = 6\nvalue = 13.933"] ;
344 -> 360 ;
361 [label="X3 distance to the nearest MRT station <= 5058.894\nsquared_error = 2.167\nsamples = 4\nvalue = 15.05"] ;
360 -> 361 ;
362 [label="X3 distance to the nearest MRT station <= 4566.718\nsquared_error = 0.25\nsamples = 2\nvalue = 13.9"] ;
361 -> 362 ;
363 [label="squared_error = 0.0\nsamples = 1\nvalue = 14.4"] ;
362 -> 363 ;
364 [label="squared_error = 0.0\nsamples = 1\nvalue = 13.4"] ;
362 -> 364 ;
365 [label="X3 distance to the nearest MRT station <= 5909.095\nsquared_error = 1.44\nsamples = 2\nvalue = 16.2"] ;
361 -> 365 ;
366 [label="squared_error = 0.0\nsamples = 1\nvalue = 17.4"] ;
365 -> 366 ;
367 [label="squared_error = 0.0\nsamples = 1\nvalue = 15.0"] ;
365 -> 367 ;
368 [label="X3 distance to the nearest MRT station <= 6442.152\nsquared_error = 0.25\nsamples = 2\nvalue = 11.7"] ;
360 -> 368 ;
369 [label="squared_error = 0.0\nsamples = 1\nvalue = 12.2"] ;
368 -> 369 ;
370 [label="squared_error = 0.0\nsamples = 1\nvalue = 11.2"] ;
368 -> 370 ;
}